{
  "embedding_dim": 1024,
  "classes": {
    "hategroup": {
      "intercept": -0.6336858220437651,
      "default_threshold": 0.9,
      "weights": {
        "1002": 0.6083133881264625,
        "148": 2.4982917450854947,
        "260": -15.660987974870835,
        "298": 10.665211852041764,
        "303": -3.5254717956372033,
        "375": 2.6782067513901646,
        "378": 8.952723092929265,
        "42": -2.0419339857510166,
        "43": 7.287038421887241,
        "545": -3.709129859175878,
        "576": 4.3353876126513615,
        "616": 1.2286958646425747,
        "654": -2.0155006980365378,
        "655": -3.8023481269039046,
        "715": -6.969714465077309,
        "724": 2.477541141553501,
        "733": 5.129789149647914,
        "772": -4.499042206458408,
        "807": -5.066734825578204,
        "854": -0.8002445858660969
      }
    },
    "selfharm": {
      "intercept": -0.34282212745902,
      "default_threshold": 0.9,
      "weights": {
        "111": 5.406742643336453,
        "123": -17.795078289134658,
        "140": -3.140275019354721,
        "188": 2.208351362532734,
        "208": 0.6349690998174248,
        "241": 3.1178791038222466,
        "292": 5.831713959754376,
        "424": -2.9384845954959964,
        "428": -6.4648853497400856,
        "430": 2.3279017889501503,
        "49": 6.134255373032748,
        "491": -5.340658220431599,
        "516": -1.269262027094727,
        "52": 3.5584966322371687,
        "525": -1.0842420887843913,
        "554": 3.210529359293331,
        "56": 9.525361181362793,
        "661": 5.32433582100249,
        "665": 1.4598262685653447,
        "67": 1.9688093717101125,
        "746": -2.402476327793133,
        "756": 1.569886704870287,
        "802": -2.8386612015205777,
        "825": -6.287507799978309,
        "846": 1.8122945784908093,
        "897": 4.864694107566741,
        "907": 3.3933799164775267,
        "908": 1.6572906491096526,
        "920": -0.38954516878211065,
        "927": 4.995187779793736
      }
    },
    "sexual": {
      "intercept": -1.8180586599350586,
      "default_threshold": 0.9,
      "weights": {
        "1000": -1.5311507822293113,
        "1003": 8.440781595727987,
        "1006": -3.1293960414955957,
        "101": -1.87062754433183,
        "1012": 3.5069602199354923,
        "1014": 7.392631927637249,
        "108": 3.778253927423036,
        "111": -1.859948144155563,
        "119": -10.21027492047269,
        "130": -11.13567751862305,
        "142": 1.1197074577324904,
        "143": 1.1322825564570635,
        "145": -1.0204718202242542,
        "148": 0.7737742957692338,
        "161": -0.8283405356692919,
        "167": 3.844689449496012,
        "17": -4.517161837876362,
        "196": 2.7499583170551616,
        "200": 14.446455009679411,
        "202": -6.496007799169202,
        "210": 0.7963328178309039,
        "22": 3.988114570230404,
        "238": 13.029706351227276,
        "240": 5.349404491052801,
        "249": -3.777011393867115,
        "253": 1.6399259596530003,
        "275": 2.135644553591711,
        "282": -0.13291232880903273,
        "285": -1.745500341906429,
        "286": -11.859911014093793,
        "301": -8.444700354074659,
        "302": 4.188519569140431,
        "304": 2.9484327596632887,
        "311": -9.113737322245218,
        "32": 4.79626187521049,
        "338": -0.3564706047565506,
        "354": -7.049800543208104,
        "369": 0.6595304375523963,
        "37": 6.44564430516007,
        "371": -0.3081130638566772,
        "393": 5.951718404448557,
        "417": -3.023530521859986,
        "42": -0.7777262017225828,
        "430": -0.6315610577181119,
        "447": 0.8194124658716341,
        "452": 0.09911123468523073,
        "454": 0.34952897648998926,
        "457": 3.229638153924597,
        "465": -2.5228551375659434,
        "484": 0.6543444557936322,
        "487": -3.454674942030781,
        "489": 3.588883394113067,
        "494": 2.8912584083440174,
        "502": -0.5221844568582259,
        "51": -8.197419171290587,
        "511": 0.057783510985605885,
        "514": 0.8885199144065951,
        "527": -1.9009747661988365,
        "530": 3.6273270060530534,
        "537": -10.573964929538729,
        "54": -1.3872047460509525,
        "549": 9.54240105685844,
        "557": -6.548329361448842,
        "562": 7.232344248483258,
        "568": -0.5453101685138334,
        "573": -4.3886924192365635,
        "583": 0.31861804435239666,
        "584": -1.2289182550743787,
        "588": -1.2829675599529267,
        "589": -0.24207279585815064,
        "592": 1.2425675232091347,
        "596": -0.9332996445404423,
        "6": -4.740259039847614,
        "606": -7.920900043621641,
        "630": -1.954385924231784,
        "634": 1.18007301587317,
        "64": 0.07149657357073141,
        "651": -2.10646337537305,
        "654": 1.46356941590209,
        "661": -3.247499137329842,
        "687": -2.1682327826711822,
        "695": 1.9603606990264164,
        "698": -6.145972802444251,
        "70": 0.9889443321855224,
        "708": 2.773858958771299,
        "711": 5.856750779910283,
        "713": 4.575798688349162,
        "715": -0.6550030696557079,
        "725": 4.441668436517542,
        "747": 3.1911146128112535,
        "769": -1.5350530531419049,
        "775": -1.2135017324604847,
        "78": 1.618005228976142,
        "782": -6.223955730536922,
        "787": -3.34146417835157,
        "793": -4.271724481964497,
        "800": -7.084882356063195,
        "813": 2.923597491048904,
        "817": -3.815203325114845,
        "826": 12.214516271376455,
        "829": -6.65282307264723,
        "854": -2.6993515290025516,
        "858": -0.5143894463556836,
        "883": -8.671664311440049,
        "929": -0.5644796174719392,
        "967": 5.114180202560262,
        "975": 8.985259194078383,
        "985": 6.721068420700085,
        "992": -1.837645359033949
      }
    },
    "sexualminors": {
      "intercept": -1.3572299854997385,
      "default_threshold": 0.97,
      "weights": {
        "1000": -9.690930375223006,
        "101": -0.2503212549333778,
        "1018": 3.2326996706108506,
        "111": -2.216987447314818,
        "119": -10.636835569706854,
        "130": -6.924715600422423,
        "154": 4.786168739279417,
        "165": -5.217251314965882,
        "2": 1.5068707167916442,
        "20": 0.13711419794552726,
        "262": -0.8187724816336616,
        "275": 4.558709807453367,
        "301": -0.4743455280601047,
        "302": 3.5089322280661954,
        "32": 0.7740591838498948,
        "352": 22.65359715993063,
        "379": 9.026040291801518,
        "392": 1.2294686194688726,
        "401": -1.183582533405316,
        "437": 3.3676163166224358,
        "454": 4.271606431184564,
        "457": 2.304423232974653,
        "484": 2.8005006418795872,
        "507": 0.5629440358822304,
        "508": -4.044470167629989,
        "545": -6.115970123073527,
        "558": -0.8879868474567162,
        "584": -7.4648712628519664,
        "6": -7.343550801160684,
        "606": -2.64994443807241,
        "651": -10.124319695421123,
        "663": 5.590676061893306,
        "680": -2.5815068551266616,
        "686": 0.4509819526733189,
        "741": -1.583676883230154,
        "743": -12.123798058783418,
        "779": -0.8810567501040965,
        "78": 5.717379806819707,
        "820": 7.493139740571044,
        "848": 15.974964473484352,
        "858": -2.3188391689949523,
        "903": -5.822729949481075,
        "914": -2.697803018665335,
        "92": -4.246152489441093,
        "932": -4.421169495061468,
        "979": -1.0437465506822043,
        "985": 3.579248732620396
      }
    },
    "substance": {
      "intercept": -0.06716528993148292,
      "default_threshold": 0.8,
      "weights": {
        "242": -21.637557355626182,
        "32": 4.356295924211193,
        "448": 0.8829427032880862,
        "626": -12.653377592725542,
        "679": -2.0018648723063492
      }
    }
  }
}